# This weight file is generated by BP (Erhan Oztop -Dec'99)
# This file specfies the network size and the weight values
# That the network sizes excludes the clamped 1's for input and hidden layer
# So the weight matrices has one more column for the clamped unit.

# Note: To train the network you need to load a pattern file
# Note: You can not specify learning parameters from this file
# Note: If you want to continue a learning session that you saved the 
# weights from, use Make Network from Weight followed by Load Pattern then continue training.

# First matrix is the input(x)->hidden(y) weights(w) 
# Second matrix is the hidden(y)->output(z) weights(W) 
# The network computes  sgn(W.sgn(w.x)) where sgn(t)=1/(1+exp(-t))

outputdim  5
hiddendim  6
inputdim   220

#input  -> hidden weights  w[7][221]
0.027979105709266115 -0.0351650965215354 -0.1113110554720551 -0.21424746879311682 -0.16897314060851823 -0.21123709149208547 -0.23053226875716698 -0.3363294378559441 -0.25216184299985883 -0.34278962357151915 -0.2718816466506892 -0.2333297150259883 -0.27301021965989286 -0.2169416950465451 -0.18325941795157305 -0.14672852645935427 -0.1408956320256186 -0.13956325412969972 -0.12049217042865412 -0.05956411557137742 -0.06715125995928875 -0.07499972207532382 -0.09357788100806858 -0.07528487470045025 -0.12260322797943755 -0.12440878779027872 -0.24803452804849832 -0.25033668475839344 -0.30194565273898955 -0.32152215282073954 0.058346142118681284 0.07324658277835681 0.16409799019649846 0.2229056595978351 0.2292414670332935 0.36557569806888013 0.36186285078431313 0.45945337095869054 0.4941488182975709 0.5160991046325972 0.5429712865271538 0.6374163155911309 0.6716910843940667 0.6713420168569129 0.7352465887512021 0.6699149837318783 0.6567477935108427 0.7248832365893714 0.7657848934282397 0.710924982734865 0.6816063943178063 0.7477141851370763 0.7984709834697182 0.7380325739030652 0.7798866272875771 0.8443493691617993 0.7878014679417311 0.8975468180159187 0.9005107390493028 0.8951668241059473 -0.003630225403800871 -0.0142027536485056 -0.035588601699388926 -0.024261473269926847 -0.03198362351587137 -0.07015903893477565 -0.05333029652111673 -0.010066690286510256 -0.0739779238094351 -0.06413553281862865 -0.10326303888340092 -0.1070346652709961 -0.04785012945772763 -0.09335529183527788 -0.16233706931557768 -0.0988556789225429 -0.11051527320110119 -0.10346795665350622 -0.10363817739119971 -0.15087120425441777 -0.13915632302880204 -0.11539606249879399 -0.16168245808841272 -0.09505928367342557 -0.15823818691390737 -0.09250336228824885 -0.091158216289584 -0.10402275464301784 -0.17725014725703653 -0.13252411522263477 -7.551858020992718E-4 -0.035949516197054894 -0.0855301775450774 -0.07393985755737459 -0.146629723825294 -0.14472295560786524 -0.1566229966177829 -0.2201655161677589 -0.2833817833084061 -0.3087439499648915 -0.34814486873950795 -0.3473369270804609 -0.4449453536115548 -0.47927016383991156 -0.49244743162505217 -0.4717910888106681 -0.5069768529482374 -0.5000516734103019 -0.45382926636756216 -0.38420044465050707 -0.3101441843283591 -0.32008918972099093 -0.20296118551493617 -0.08072228880612614 -0.02111292935729323 -0.017078106533948346 0.010050505394762176 0.043310007560916165 0.058159264561463 0.08004915583496792 -0.2795827219794415 -0.27086280327441004 -0.22102882882589936 -0.1998835763156601 -0.1313209122161251 -0.06629094318756258 -0.0828380947699093 -0.006315146487470586 0.03515178058118174 0.02593955834898075 0.11748382788326052 0.09845402345088085 0.06760511263724445 0.1207367595979062 0.07409168712064912 0.051321301219288594 0.1201702537492674 0.19481647642998134 0.28717343796973577 0.42764478845741616 0.6762360318872318 0.9034337398756307 1.1184996080566578 1.2667199043608488 1.3068421767707254 1.4771539407536403 1.486635854000425 1.5415938636234734 1.6024178661136999 1.5786958758922156 1.519091698818839 1.3396177947867065 1.2154086699868003 1.0653541846399646 0.9481652757631012 0.7217556773395745 0.6284124519073891 0.5199357395486951 0.3158360352475005 0.20294262276733763 -0.011747182119620473 -0.14542079593102086 -0.24749358192096735 -0.35696362013075134 -0.511882047762899 -0.569601900697433 -0.5604147888666996 -0.522124346342373 -0.5559723714820541 -0.42604263274518245 -0.3112525230613074 -0.15195109524275546 -0.01727647417387141 0.20562295919177428 0.45109501106216604 0.7201631212732427 1.0804835932864771 1.6223086078349918 2.1337552320911595 2.546115833369761 -1.531357523925208 -0.9897953581806631 -0.7309518059311563 -0.4504677866614926 -0.21407914905569636 -0.11279258059977428 0.06322451376735937 0.06381413379649128 0.08450722133127903 0.100643282667051 0.1619087589498758 0.09347224225075916 0.1743061471076774 0.11449199164847075 0.07205589435318019 0.030602297266147365 0.006430319324165387 -0.008126288728295957 -0.007941749494836713 0.02785995599751196 -0.015187354338850682 -0.10505009133117768 -0.21389544604501773 -0.29366289675076596 -0.4470640225198516 -0.6262473104126283 -0.8807380069975426 -1.084977002849285 -1.2194428491078442 -1.4754860674692634 -0.08930081102451969 -0.30038795950306063 -0.718230772858957 -1.5352930866957393 -0.6964385729398859 1.63523357542536 1.733641376541804 0.3216122548186496 -0.1110399264425865 -0.05274097246378451 -0.07129156784962613 
0.4190040037410269 0.3919486538525421 0.3904823717313467 0.2753238257236291 0.3669285543976014 0.14861151901153047 0.35087013984520565 0.25719860659926314 0.3368112242301175 0.23965214024304035 0.20845535088164543 0.2868198880627024 0.239834783107544 0.12918137193886825 0.1421502808485362 0.18879905591171717 0.16549321554683827 0.32169606888282093 0.29274971502588126 0.36702978885108734 0.3827003667801438 0.4531495067146994 0.44113635175130567 0.41997164175407076 0.49753759987750157 0.5223225929694395 0.4111177603266558 0.5599029002444972 0.5315993907279989 0.5492614073633777 0.10418538650130416 0.14634200217390328 0.148852685538483 0.14558520051762544 0.13026268407936042 0.12567803989921483 0.15701685522106293 0.17228935420077965 0.09253260872615211 0.13038145261683035 0.167877375909248 0.16526444438751267 0.1246784380880256 0.10052540350494404 0.1551169007710646 0.1019043317358636 0.0641505507462262 0.06458279045075978 0.10407029591032342 0.049088042640947016 -5.791544534057771E-4 0.045817240884102065 0.03897796903380999 0.02276712539281103 0.09761914383238253 0.06510174254743659 0.09255163096703871 0.10496189130359466 0.08379874928088357 0.06423749223824138 0.06911925332756255 0.1367670710942509 0.09922782595873493 0.06353250439844142 0.0767263271120611 0.1356408615130225 0.11714644702139532 0.07765044062631236 0.12189063546251214 0.11083461200638442 0.11490290803822384 0.10376518980797599 0.11108267915780094 0.11414236515675497 0.13189138833917186 0.1566959726514313 0.12070508902270527 0.1320929551860002 0.14392496784864692 0.15667734876501252 0.14093570634059088 0.1444030240507445 0.1646239023745634 0.1640730600869041 0.14671627081389685 0.0798582794712243 0.0798412041429931 0.08977216146153995 0.012322637601695184 0.0916001182258578 0.04131066754462374 0.0024879572521058877 0.06888765977451136 0.03366580837285268 0.027402478940803467 -0.008623638658675563 -0.015888799241652776 -0.1026066619682417 -0.1140877315046 -0.15893532505615934 -0.22179459616063418 -0.1922874919932705 -0.23554816744353035 -0.23317840654897581 -0.34838916163932554 -0.3099048316701052 -0.26284740363300696 -0.28314158225547437 -0.32937800742804585 -0.26238643878393 -0.2024591145994007 -0.10204667270320068 -0.03799776444762364 -0.011649299918293589 0.03541226391396182 0.07870989446351166 0.15649752929558688 0.09594920251157536 0.0959035196833425 0.2509525536995364 -0.40519731894691036 -0.19954533865025148 -0.38863316580350327 -0.4730461528089813 -0.39168267488823505 -0.39500869615493234 -0.2802228011280781 -0.1084639066835311 -0.0628083248514289 -0.130990500255285 -0.25397493981015984 -0.23846290759383892 -0.123594234868464 0.03592853856325404 -0.10433161433401653 0.0026491713187160953 0.06713775996894353 0.2369181261306013 0.15601123700906114 0.480871973702204 1.0064603990026986 1.6066089130115166 1.9686771721452871 2.330598240810238 2.7217141906411104 3.0603347012555355 3.167278276993959 3.3484978988234815 3.514218763477307 3.447710655478393 -0.11762274379063124 -0.11519939376854951 -0.003943471317500454 0.3018079038218316 0.057934395032128015 0.22060463384394757 0.18125782440705904 0.36255591659603814 0.6971799787802316 0.6224548704176129 0.6957535101172191 0.6704758566865746 0.6539858860587009 0.6612777646886857 0.4104598851582795 0.17993523495900524 -0.13254195396737298 -0.1800214584532913 -0.32519968302133156 -0.4416263524727759 -0.777900108064522 -0.7150294300548187 -0.729179320211682 -0.7323551497029559 -0.8435845909231257 -1.0006754865818484 -1.0865085383105135 -1.1052970392805523 -1.3137689625607358 -1.4832275824478554 0.5559561391230698 0.2566966398391101 -0.07045419140833677 -0.13222865637141087 -0.18750251652244165 -0.28932101693698953 -0.398243313799238 -0.5168511027512275 -0.49092671160212203 -0.5629011793514284 -0.6172003949490886 -0.6563309694585251 -0.7588933079462059 -0.8169395517844538 -0.9757509938688452 -0.9780957905998167 -0.861511535261039 -0.7338157437905545 -0.6201395009583573 -0.32472451538953145 -0.03936311273705854 0.1184991768818511 0.3071041234194839 0.40313385504352556 0.4806976814453511 0.506048971208119 0.45560379906313286 0.31691854232527156 0.28552288221028405 0.23427131952599234 -0.06218021915681169 -0.14572381102054566 -0.4781195397580859 -0.814079313053173 -0.4616814979450561 -0.21914880159711128 0.6204197234678172 1.229630362131624 0.8837223994433885 0.46890648523002376 0.35009545796391156 
0.27959637381036156 0.23964873215566376 0.11394473789846846 0.14935902770126447 0.13383874147427804 -0.18037813563825403 -0.2256923555386443 -0.3219343147206067 -0.2652138156402709 -0.41454404282479473 -0.453085119099607 -0.6169327525153167 -0.5143767919946123 -0.5927923242597161 -0.6467856168508936 -0.5621419805662112 -0.6747727318418579 -0.6788283864848231 -0.6004106359906377 -0.7728502958140998 -0.6764257374577064 -0.6253787760928584 -0.5792967789380817 -0.6929567459130026 -0.5727004955303574 -0.5471533001897687 -0.6493742851172335 -0.6092802041575964 -0.3807787924384862 -0.3986522450105642 -0.010616314490312369 -0.07575336068928391 -0.04753962851976987 -0.049163280617129546 -0.10652680404300593 -0.03637004828908634 0.06368191010326049 -0.035175140315748185 0.06477691369087767 0.07317586262366317 0.09207925639929408 0.030849517899690287 -0.027032838918099395 0.08712791231261437 0.048187349121161585 0.0758487709011039 0.009494088725928716 0.05206980373745648 0.08673477317864227 0.07015246979861232 0.05759453747215584 0.034730622203856545 0.13808825163814847 0.018070912656563798 -0.01722361231273921 -0.022359770572018326 0.015379629979947825 0.08037267838824715 0.04074719406309052 0.017592918280375517 0.11327420002735882 0.011234200169942532 -0.05272550413510446 0.08866684275589082 -0.020067988661529108 0.024968569782884 -0.02082718918943947 0.0641389861060559 0.08999474842860584 0.0200641868700245 0.07268124542011664 0.1427171586148376 0.08962936664245469 0.12355259529249595 0.12791641408629137 0.09570602257351479 0.14483210472323022 0.1638808790611508 0.0016184708067372511 0.11475368176652226 0.08365726387784894 0.06755343385417668 0.07223861700105422 0.08074499270969683 0.16980324358931198 0.2294616378200814 0.19158650253150977 0.16837560394933634 0.17748707797935165 0.19466957350786107 0.17995921757084657 0.12271481075919242 0.12996702631521306 0.16370645919574195 0.011097511427558458 -0.002610213684823228 0.06123872597637833 -0.004902072534733647 -0.0594254098215116 -0.019137557772205327 -0.09013334432303406 -0.14087214028539707 -0.16792337152864642 -0.11552729499540029 -0.19698241400699235 -0.278328852807667 -0.26306056827665936 -0.19004848334556032 -0.2933522163963621 -0.07081342270698768 -0.1307914366322222 -0.07249433441797977 -0.1132225115958257 7.36148887896651E-4 0.14975077809838042 0.09653310830841616 0.13011578428967152 0.15974782971299026 0.12766379539380973 0.22191433448806946 -0.385519036200718 -0.3743320772430255 -0.3900678770696169 -0.3016909477135986 -0.3469242078565903 -0.2890462343926958 -0.2418584556150498 -0.3964684337371704 -0.16621958705765014 -0.23274218325366144 -0.1454592798548517 -0.12160268557712653 -0.23592977896892178 -0.16123590214863162 -0.29557989854030065 -0.11306646641602895 -0.18348991939561118 -0.06938980504042945 0.05311661389048012 0.22597947267816637 0.122286029361946 0.22543392188448494 0.3106473710064962 0.42073894719950206 0.2916701709134759 0.42840127453257915 0.28562300144291614 0.33818072586902703 0.4699726499028816 0.44358669090510255 1.1347753354996035 0.7521369105769494 0.3680000533630006 0.3317377308324635 -0.08605306807353182 -0.17504969611619114 -0.27571183728461623 -0.140927155716832 -0.289287198945454 -0.24042238938207802 -0.11656108900483597 -0.054114268124313844 0.07049234393038377 0.10056294691173082 0.32171137800794236 0.386946174442527 0.5533517558170284 0.6713583254066562 0.7850499297098318 0.8284880409918803 0.8069435884164866 0.810505383004101 0.8658391080009532 0.9463209226803009 0.9780633267831225 0.8601352793575922 1.1263126696423558 1.2222021663483766 1.2599856097759519 1.4475325084655852 -0.7903898806859125 -0.36452269979572294 0.004224743743909312 0.17139448874097088 0.32799817780533164 0.5415174557955075 0.7325319446161906 0.6473485328192574 0.856221092594397 0.9755009484583902 1.0498662280752535 1.2161579343669804 1.278935664342259 1.2794397490607947 1.1886491789946936 1.1227076343610258 0.8645998948426257 0.5902581380138129 0.4780745784713798 0.07777449911474967 -0.11352126589792885 -0.4435148664124444 -0.6216926361374968 -0.7521534855339043 -0.6983446658289418 -0.7434334361221941 -0.8354375379666905 -0.9437158295528525 -1.0553336232250357 -1.166775000935445 0.3126469999939084 0.30424387909670897 0.4435300096473956 0.9120617733659544 1.3867736028804731 0.7661093402038733 -0.9933111198036868 -1.3791435571132116 -1.0085564756569925 -0.38942170342988475 -0.04472608587310658 
0.552022232553845 0.64077690426376 0.5798390037251574 0.41422543973529596 0.38073265954768715 0.0866092824448181 0.06715955811261226 -0.08133891660002139 -0.06081157929367114 -0.39600551393543143 -0.2769216171273144 -0.4935984076966165 -0.5756430878787675 -0.6579765129284398 -0.7333578450281949 -0.7271432494111426 -0.7693796277448002 -0.7269333442910778 -0.5959097335538895 -0.6960813141556467 -0.6782628878263355 -0.45490908509259004 -0.5334898665980896 -0.5459533484594445 -0.3270247359374398 -0.33790541444922384 -0.41956030712238035 -0.24718265149386626 -0.13290591091630335 -0.08113475481249303 0.17553492721331185 0.10313502167050537 0.15335490964426493 0.11313655035347836 0.07399880227545667 0.1321809749950645 0.12812910441858705 -0.0026875552567130357 0.055881981035268646 0.06940436224357062 0.1072233290873246 0.04910969781352135 0.016804024111910783 0.07422065090498266 -0.003710001997879279 -0.03200579868952167 -0.10381055707914483 -0.12749183914666867 -0.05574698120544414 -0.11635773044230185 -0.11435072605497525 -0.08651936984817998 -0.13726655618638114 -0.14131910580964885 -0.09556296276483017 -0.0848619887768875 -0.10207360346915036 -0.07327720393125224 -0.12084503902720188 -0.09885976359442185 0.17517610732711403 0.14103615210521314 0.09235062603530135 0.09174911469133164 0.07708615501822946 0.03475977002704177 0.029219279237484488 0.07207890797792783 0.01858394155633151 0.03893055628455646 0.02255549524980762 0.040403188224230085 0.1692522253803947 0.12717793561747776 0.12475992885257502 0.1907455056809606 0.1713702377285593 0.1334433510917294 0.18454769552111958 0.15117591325079446 0.14771154540200437 0.13288588479693345 0.0928436337672393 0.12067921377624874 0.10176300162144312 0.08512036702499819 0.049282416133458046 0.08031211879450238 -0.006613493399585701 0.05377989759146385 0.16343886260024712 0.02526406971264547 0.0495387908467228 0.055983490873882547 -0.09678801696232878 -0.10329548022485106 -0.167207888236871 -0.22367548949089733 -0.32937420060129424 -0.2818832691902956 -0.378781676218005 -0.4004689206081553 -0.5267850944719203 -0.459602468874692 -0.5060043997007811 -0.6344496762754139 -0.545500378167443 -0.46463559603185056 -0.5178382228797078 -0.4100180122640585 -0.3719881974270699 -0.24270392832021342 -0.07543540826798419 0.0188309112188415 0.119953479791804 0.10046768166538815 0.1799748122405498 0.17528687055453843 0.24258254028825296 0.33355533739503046 -0.44586024362234644 -0.22283511768659994 -0.3272129176081376 -0.42959479765438224 -0.24570345681464842 -0.3897773619037574 -0.21266079153377018 -0.049952824464101875 -0.057178405110916625 -0.11404092165467426 -0.12191702076630205 -0.13308567776085645 -0.11249342348867755 0.09897281034555562 0.021383004071708817 0.10082921742184871 0.21781595850561752 0.23216911189319378 0.5489428830901832 0.8908543561451889 1.5003664636657141 2.1395824473125074 2.592494036502601 3.210194357319081 3.584958844799634 4.048088063541623 4.279269459367493 4.4738511968797505 4.674146301168817 4.715153791508187 0.7684108996205782 0.5254327016208177 0.19324453752471002 0.1455765570006192 -0.12174525104125916 -0.29672463178274877 -0.48488921011745645 -0.26600354541767235 -0.14013190999552508 -0.25118733441765984 -0.12288646167165881 -0.026767869924778243 0.1799630966714036 0.2528353012326717 0.06678331504986962 -0.04921328750681112 -0.04588978033683144 0.05631668393767262 0.005584855141010598 -0.01787726601758058 -0.099305201656504 -0.10498424114684735 0.07414736108851595 0.08036981157715456 0.08592304063698437 -0.013076766401299804 -0.05450525485620214 0.036777845136223494 -0.16692749325060025 -0.19140531964396426 -0.02367323412809605 0.26951814113430866 0.18642550553103399 0.1514513821808273 0.11604215491993349 0.02560193537412889 -0.11030383765867462 -0.3242731189948367 -0.20740387507050756 -0.37305538893667534 -0.22764594871278898 -0.2211891903799766 -0.27068410085148475 -0.07428042535005366 -0.39580657729797464 -0.17986073588096357 -0.29216624939554897 -0.20960148702059372 -0.30031375987328 -0.21590619903851588 -0.07176719778184491 -0.07754418411609466 -0.15388983152068633 -0.04820951416813681 -0.02263597347151902 0.12665402761679764 0.07288837855567677 -0.19861506435127485 -0.24360685599909052 -0.09372990290801032 0.1383077452054503 0.07163532371007501 -0.15796163743514058 -0.24275740844657562 0.38112111325058495 -0.007444173939759379 -0.44688821446544724 0.9509746463947623 0.7339236428550356 0.4484176909766014 0.49864266982487415 
0.4032477063178092 0.4441862148328703 0.4884761345701422 0.49637847164546073 0.45732702573657846 0.43794720723954333 0.4570897972361756 0.5186780592872737 0.47404914111103547 0.34990975128398416 0.41858041509656985 0.4116967429516648 0.3149415775771569 0.31278907522557375 0.3220232396344014 0.29228729515163204 0.3260786171398765 0.2757962487629813 0.3111269350523932 0.3022948450573834 0.2580029155571053 0.28286602737398664 0.33767656306731364 0.30651113345033376 0.405562929086429 0.32968242079448395 0.329422325551043 0.45945956167680746 0.4627759118085449 0.4718700204708817 0.14131403955439917 0.14699562742619404 0.029269904340271116 0.027020514470688876 -0.05798171103878475 -0.037112592169901384 -0.0936718132871687 -0.18115313840828673 -0.17143498452713915 -0.249210629348722 -0.2674450363665313 -0.27726898620234136 -0.2876843395589701 -0.28299510181875887 -0.36322230079974394 -0.3981446391482267 -0.3358193005489892 -0.36813070163839984 -0.3428376265381659 -0.3866931207480253 -0.4000095512225784 -0.45801620667541637 -0.469471548489664 -0.4923239904235555 -0.4282077044667211 -0.4389353475620035 -0.4456950300726592 -0.49469538132787605 -0.47275663771661136 -0.45484068442881326 0.1669040359437723 0.20169031771266058 0.1862004622944955 0.15959364788620786 0.1544719478196255 0.23692339558000636 0.18930714613505983 0.18678213037583777 0.21838746594005962 0.20623072418559665 0.2676401665004857 0.28398225790850345 0.2504869384567895 0.29185482955069675 0.24625990002266546 0.2645317769168796 0.32735870443389004 0.34704084965865917 0.3110242090652874 0.2874673873303648 0.2968605778154173 0.29916440933098887 0.3444142828739476 0.3415076917827199 0.28106604271338276 0.3290702806514469 0.25365462550338386 0.3128240053486032 0.30151152968484957 0.26467506843647765 0.16667697384983288 0.11417705232384787 0.16032388121316984 0.18315775443838475 0.21936571657481316 0.20260878099608523 0.1621384556596622 0.23456865821923178 0.17239708255301106 0.1927636623581199 0.17650515199245392 0.2252976195892108 0.24014557675763906 0.19317408091909935 0.23979852582577002 0.16548262319015178 0.18946529345073598 0.22713917362526595 0.23655998022552935 0.2457523429688849 0.16139620547113737 0.22391976599068925 0.140078753480234 0.20460670764046596 0.1917902943106723 0.1880299149935021 0.12372788874490637 0.1373814571486085 0.15528193595951498 0.17269756989012328 0.11887629244077895 0.10739860922389229 0.08408860473124773 0.023134255291231753 0.13118127462675205 -0.058840784854933145 0.0924573929390945 0.11119150390782653 0.0839989417939801 0.06262977707009616 0.07423266817726679 0.14315671199901936 0.1509380808240109 0.3093282858658798 0.3345010386221297 0.4289047461980823 0.45681880359077576 0.5463168057568677 0.630969141610248 0.7105770839589891 0.8933024541480193 0.8957223388181543 1.1426898862421146 1.2371054585418046 1.3501759667767026 1.3893607853693937 1.4950180423587656 1.5131630247437913 1.5308674269013338 1.5902177155430006 -0.4914492000101227 -0.4774625729522808 -0.4082070059213547 -0.32807693491912165 -0.311087936089066 -0.25352417767122326 -0.20536799867571592 -0.03307316252786874 0.07227845564884613 0.19165409504655434 0.2662511146609866 0.28277326575702555 0.4155848376071546 0.5015729676794205 0.4838561791069525 0.47063005098846433 0.461005442327031 0.41225191330525185 0.2821820394628096 0.30634189050066607 0.20938010797911855 0.05036216658197199 -0.059827207473799965 -0.17028106733794254 -0.32723629581471975 -0.7381048325282145 -1.0207670215969624 -1.4452960118038187 -1.878079893274438 -2.198312519640085 1.2314943123127253 0.924828865328153 0.6332016927732073 0.3994782505110161 0.3262380493876249 0.12722335060643938 -0.028637874856171305 -0.16724140311492533 -0.12016786704922584 -0.06204473820371567 -0.06403276905917889 -0.07447210002552303 -0.22754834614780037 -0.09391457656933502 -0.21073336847633645 -0.09047510945770948 0.05983560843946616 0.05566151771704669 0.09310088356789624 0.26721592243065384 0.46717789848575186 0.5102747397842758 0.6484528816342905 0.7783718316155137 0.8127864462257519 0.9542323417442315 1.0139476386124813 1.0537608803269685 1.091339996073256 1.2151085636630583 0.2763213803865871 0.40357770436589424 0.619573836481748 1.315628236413412 0.9365009467380024 -1.139175210348863 -1.285570456806241 0.0021952427813974546 0.33469043574422414 0.24862108372809294 0.5060289537693391 
0.9180107118283828 1.06262295705508 0.962634727725554 0.8780438620634191 0.7600201711325625 0.607619746514123 0.48446155617547454 0.4110393683382033 0.2905753357462525 0.005734882690903136 -0.09096724890759679 -0.1184719362098112 -0.3622082208480151 -0.48005160821038406 -0.6729660334343625 -0.6619209829116739 -0.7370255148522321 -0.7035085252192541 -0.6262540585689863 -0.7589676725618516 -0.6788654632236061 -0.6195449260255893 -0.6474952003015243 -0.5337861239617967 -0.41858882502833317 -0.32413620347357364 -0.24211320111990478 -0.040433467822087794 0.12051391616269602 0.34702186059406004 0.1188137365042145 0.09290120133215152 -0.04651491859162547 -0.09191086368879628 -0.2237555850106589 -0.2254267308232768 -0.3278545707080427 -0.4624545234780329 -0.4538746722237021 -0.5554690106993534 -0.573648264885417 -0.7102755788084807 -0.699560630800262 -0.806558076964929 -0.789280290844213 -0.8347217572244452 -0.911997612643793 -0.906560803098094 -0.9333105237393595 -0.9137236925530489 -0.9754174500436924 -1.0008864760328722 -0.9814442035229495 -1.0722738191987953 -1.1289041970225389 -1.1504239919912465 -1.124201258083044 -1.16964106493254 -1.1346690910403867 -1.2300437999355227 0.3066806670927231 0.18955285411306194 0.18540331822895392 0.28441928242176234 0.20578992286312103 0.29399609864649595 0.2703748115773927 0.22459224939434078 0.2735908009190379 0.25087763612099995 0.23984031937643727 0.3028700612948208 0.2878773363104861 0.336779719347524 0.4538118147434627 0.49795164177047296 0.45347254380274626 0.4402010644405001 0.41386694089089626 0.5009208985572832 0.4013507136648725 0.41339202602730235 0.4289224526186547 0.3791321342215936 0.40816772598996626 0.44133531430027123 0.3009876642990154 0.28612767761816177 0.3408445589436494 0.3629070632426554 0.2239888077685386 0.23753438049522135 0.22975116797688136 0.26453817378844224 0.15725131924609487 0.11379666859154267 0.1764492148379774 0.06624600965712231 0.11995436439851921 0.11128933775324248 0.03979974620629167 -0.022903309393263238 0.019942932854004055 0.016021396258130188 0.01888103311703091 -0.08495477128438533 -0.02432806489053392 0.022457238569843566 -0.017655847723871035 0.06931626427886206 0.05127567994291763 0.14495875738678862 0.143127179338942 0.17873157004968365 0.257551154501071 0.29302363765657263 0.3073517285056352 0.3175283789945273 0.3451602295807704 0.29657103709326904 -0.15573608809056574 -0.012151734082051288 -0.2753966085073282 -0.3679788607786505 -0.3926325071434506 -0.26999249054673596 -0.23640463494677377 -0.2471080037211783 -0.09732068663434368 -0.1742648977333286 -0.13585164109454484 -0.14630536392695004 0.1484990809176913 0.2073907873461063 0.337817478438031 0.533008822486637 0.8084559771114203 1.0848409206473135 1.2842595079979597 1.4460966900157592 1.8001330059890126 2.108347344200047 2.3877593454623436 2.8134509555916734 2.8986205969021923 3.2219182092582774 3.3489054466333847 3.4976332065910634 3.908147373617693 3.7736423829251495 -0.14033448679009408 -0.2604567442107449 -0.5464214859651416 -0.6193582806582025 -1.074718163133265 -1.089412808738018 -1.1168414665576119 -0.803491099155403 -0.705334692142768 -0.5747344418971712 -0.23025670238511897 -0.09299901114491795 0.10127113738779688 0.20091097672744038 0.22074938784952067 0.34049243551761327 0.45122819247417034 0.41595167567995023 0.42504696320115987 0.38356844541024765 0.0669665150029601 0.03195398728919902 0.09295724834670696 -0.042735017249269654 -0.2532460090983643 -0.9405786503276079 -1.297426351919544 -1.7531681737795337 -2.393657707701991 -2.891784520507134 1.7082261793377655 1.7443986113006367 1.5728733953328558 1.0764286676866859 1.0054089051681145 0.7250832153300885 0.5456119561502075 0.2335089008754815 0.36197592614349156 0.2462657544475842 0.2918252219562589 0.39524492770770475 0.2807525899688336 0.3659485647108871 0.17171686280899456 0.0996608190211795 -0.10484745958038418 -0.08372271008204701 -0.1500548487332816 -0.3738683608185765 -0.15561597995794646 0.04843662796122765 -0.05259577595232949 0.12111693344658168 0.41494275395285557 0.7021159593512071 0.8254855084748333 1.010145212756902 1.1867911771924402 1.4086890436837876 0.4001642034838734 0.6700139089873075 1.2252390213815365 2.5534673452359167 2.259784911611636 -2.227670164050001 -3.7871349991605263 -0.130452785579339 0.8150913450877438 0.5031627059672134 0.6856746574557142 
-0.04474473471821962 0.007714731222059868 -0.027611560664314496 -0.028388829981899146 -0.04532458342409568 0.013399532226495859 -0.04544266963629206 -0.02986234022278125 0.015847565009215914 0.026320454727279896 0.014702777821347891 0.0015053665702318697 -0.038950481408134924 -0.0010980360797571698 -0.00884310034697623 -0.044883600808353366 0.009879791636933477 0.008687954908792362 0.03566064755541606 0.017248514653980286 -0.0024652364566265517 0.010721379515255937 -0.0011907287624936536 0.026910168148873183 0.022268758120296273 -0.03761853209071665 0.015000785143079176 0.00729800633224661 -0.026653781076311823 -0.04029250971538837 -0.0010122803529619918 0.019942351839141503 0.02253350452301166 0.00675748506656938 -0.01931687633369471 -0.03354168617978907 -0.015458973276046306 0.037695005971602025 -0.03995239342484402 0.006277135211092056 -0.03518516464940966 0.025066353038964484 -0.04031499664896468 -0.032185550906621306 0.01668991886456066 0.03712538315711261 -0.010800031173598346 0.005239135731668599 0.024155868533809077 -0.04791753785649725 0.012421669361635912 -0.006661479799258263 0.011348799352123174 -0.0022012967516904405 0.026273446650462474 -0.04106733910488537 -0.04462832796613562 -0.03828389492800119 0.018369155884230416 0.018872508264420707 0.04515850061246262 0.007708811613715472 -0.03065734371866118 0.031863780213799965 -0.01416384170925128 0.04406016153814738 0.005467681365030542 -0.025809614950664805 -0.004599178177482455 0.009914816979726737 -0.01269885336491623 0.017868287057204914 -0.021485679317824725 -0.013675288862788227 0.040883690573132764 0.023842716690951483 -0.009160993389540273 -0.007597882368619991 -5.429418595487179E-4 -0.037451300906391365 0.02656797103871199 -0.0028872722636714035 0.025708676549540534 0.03948684142715778 -0.028329228327773927 -0.03711397254461104 0.027229618440594253 0.03442341814935077 -0.034136916010865374 0.03848994799122362 -0.03882713329712942 -0.040594217431464 0.007421989284508091 0.03551116762320096 0.04802458623462535 0.0029911706730644584 0.0167068706738147 -0.04469794088827278 -0.02104804247748976 -0.044080990860004034 0.046609195612111534 -0.01860025610924774 0.006366777252124334 0.006913857815388814 -0.008857272911770964 0.01619232454891677 -0.046855030496302956 -0.043611847471081225 -0.0030010027576525713 0.020001801551923704 -0.03763220817495692 0.020520938546733005 0.027131155007491005 0.0057727845306356 0.03650138812883633 -0.011479164468799041 -0.03970744843034262 -0.04679936907850238 -0.017392912264153106 -0.04816152741157423 0.03594480149904825 0.032402128511532007 -0.01152433079494979 0.04567571095447496 -0.02993680728192365 -0.030873579399975672 0.0035044887490791043 0.030345942854532362 -0.025894258948521223 0.04102339509081972 -0.012312696540461765 -0.007128149476321455 0.00677538235002605 -0.03236873491376823 0.022262276230477707 -0.032336012095037135 -0.023806899122011005 0.045514607639774045 0.04636447771454995 -0.04079439714506769 -0.011286927304738549 -0.015621291819052719 -0.0045449958202788635 -6.238336576716353E-4 0.009849192910622407 0.020005476605248984 -0.030650455320115344 -0.012621949932972977 -0.03735438579019427 0.015500890750204034 -0.04965488122923542 0.041187890358691054 0.03931224186791176 0.013613283436752433 0.02524435135070594 0.036036178071189695 0.04305934809781849 -0.03022354178553104 0.03900255625345658 0.017625619817284544 0.008803855775648073 -0.021948914700996903 0.022273611971554 -0.04436909573546691 -0.02621701593126411 2.823417802066408E-4 -0.009693598944544702 0.04647948462273104 -0.017900638148888103 0.02256136669337724 0.006444403121491627 -0.01650493797836137 0.01083491473849848 -0.0075274558062004004 0.03990675931168306 -0.01280756354941397 -3.9087790705631957E-4 0.03562823468185953 0.02457994378446703 0.02884449241519964 -0.049679426247272035 0.010637050739562216 0.043224966168183054 -0.013600952329152483 0.0392989596826373 0.03792132779533164 0.019805755096164637 0.043405353736045905 -0.049792032566015214 0.029693994026694738 0.0015702411094236758 -0.021182894525081944 -0.007222173813947009 -0.044075480326406506 -0.04793366046537269 -0.001629234284136194 0.01980949969695498 0.004268201482552747 -0.04354908363856287 0.02669511680548241 -0.007119166044589176 0.030702571872731677 -0.038749493716582296 0.0133899459615908 -0.024201761339850428 -0.04799077943053364 0.03215839657826293 0.006018823670015283 -0.0459242393766384 0.0012588548851908633 0.015503468378498864 0.008292921977185752 -0.011413297770344423 -0.04689799198804509 0.03170191600449647 -0.027320087762334667 0.01202117914686033 0.026937246359621206 0.01230382123126661 -0.026746025953420374 -0.032103646448168766 

#hidden -> output weights  W[5][6]:
4.1031142287009805 -4.863315408222817 3.636649247406371 -3.7747722702120985 -4.415486364261109 -4.991023204228277 0.9729603955908195 
-4.417168191078792 -5.167096000296403 0.30784645100176355 -3.7914771688559052 1.5452642125527127 5.0885589132032125 -1.4035502367916814 
-1.9570399090117443 3.836691595001374 -4.890591361629649 -3.9352656927079224 1.4958300428085294 -4.303684949244349 0.5310663538102189 
-1.171258581511826 -1.1073064056983806 -1.3731633402150996 -0.7935653358767872 -1.1880835207723917 -0.8805397270820366 -2.108940377739132 
-1.224208462666183 -1.0999073854281565 -1.3666104379210964 -0.7987969761649554 -1.1824999036256494 -0.8235004650155515 -2.106057194612136 
