# This weight file is generated by BP (Erhan Oztop -Dec'99)
# This file specfies the network size and the weight values
# That the network sizes excludes the clamped 1's for input and hidden layer
# So the weight matrices has one more column for the clamped unit.

# Note: To train the network you need to load a pattern file
# Note: You can not specify learning parameters from this file
# Note: If you want to continue a learning session that you saved the 
# weights from, use Make Network from Weight followed by Load Pattern then continue training.

# First matrix is the input(x)->hidden(y) weights(inputToHiddenW) 
# Second matrix is the hidden(y)->output(z) weights(hiddenToOuputW) 
# The network computes  sgn(hiddenToOuputW.sgn(inputToHiddenW.x)) where sgn(t)=1/(1+exp(-t))

outputdim  7
hiddendim  8
inputdim   220

#input  -> hidden weights  inputToHiddenW[9][221]
-0.6610021408932639 -0.5894065682996621 -0.43824794071816203 -0.46942301092682776 -0.4089961874767951 -0.43504916077109296 -0.32910187352088777 -0.2837004185027771 -0.4105633564528072 -0.19108324358269124 -0.2620158598572595 -0.1664449688492827 -0.2506191062729424 -0.21765522326995895 -0.2261116261555048 -0.13202387839051793 -0.06383962818408552 -0.0749914485439787 -0.1953522747028556 -0.2690617984936782 -0.20424950100839115 -0.18333711306184908 -0.24912733305653498 -0.43206030967944364 -0.5129746773517427 -0.3519744109867724 -0.3980049930964283 -0.4518259936301872 -0.5568894630331575 -0.6117068112708198 -0.15877839370224747 -0.12663815355409963 -0.12255563104263806 -0.022893934733133878 -0.08360591929227179 -0.08096166338250779 -0.034179582267024194 0.0018611022215368894 -0.045299663783770164 0.04482025278794159 -0.023867335870065235 0.11524338159925657 0.06574382165338263 0.08741497991705484 0.13436685700684925 0.06882160480721973 0.04152826724966133 0.15737130833640534 0.1761052903761702 0.15032834902950037 0.1231208504170241 0.0994007180413879 0.09348626839010575 0.15148236417247782 0.22910551948509625 0.16752141844449633 0.276456965337563 0.19510981580409975 0.1780662612217087 0.21597586197134183 -0.047599637457375464 -0.14400614383251123 -0.06411011131852506 -0.15430422104848338 -0.11262935238715004 -0.1212785077712222 -0.17234015979807835 -0.17024596834294883 -0.20409120550354354 -0.09714498363907247 -0.10220127465677815 -0.11176786176144914 -0.1070387230230433 -0.09932988542769414 -0.13742880340935024 -0.14412352348546306 -0.1530760632154372 -0.15451257884460431 -0.1920448715797828 -0.18433818034137134 -0.20254186614150246 -0.10981640161199553 -0.19466501099166467 -0.19991985659941114 -0.1323127663797071 -0.1784104062308373 -0.1291580945020981 -0.09026184612034939 -0.17134932153589358 -0.06043268054826178 -0.242091064565117 -0.1536546814563006 -0.16325005691056013 -0.29062103705479625 -0.1709955973039589 -0.2596907641549042 -0.2428409545980056 -0.25005936350516117 -0.0986079526597063 -0.13017580677855084 -0.08537536328974125 -0.14749261794563392 -0.08674855029425967 -0.21819531020446037 0.007071651885552569 -0.04525948732463412 0.014851089414300132 -0.056987838241887176 -0.13379565122060316 -0.04271834286911223 -0.038292851507008285 -0.006361787715555373 -0.2162076622049669 -0.1119808226824007 -0.13215436677476544 -0.25310610132873274 -0.28530656393337667 -0.26982038349589615 -0.24512196653324336 -0.19303690247622418 0.22568383458569416 -0.08536820294379016 0.27892409023541054 0.14387025873087225 0.5552316824119621 0.13123510857595627 -0.07555744801621196 0.09683463109077232 0.3781546493776148 0.17245843250408616 -0.37475923156801244 0.11035026174578744 0.06682414765990935 0.26236717278851684 0.28987095885674796 -0.23948722343867418 -0.46264267290833605 -0.35677778146414535 -0.4826122471101696 -0.04044883783109549 -0.2688342250226462 -0.5504499624488117 -0.15231805365905438 -0.3975623677884367 -0.6602785191716098 -0.7487212532165874 -0.9357878877052599 -0.7504499908736127 -0.6603058249297169 -0.2749275043513143 -0.7467205080603615 -0.4230118408746572 -0.1822593402343036 0.22472816011385394 -2.3943316151747165E-4 0.1726619186717503 0.3666744633872792 0.35949055645089495 0.7482153255625801 0.47765381085007597 0.6533468253796719 0.429351548386009 0.5853629190858726 0.3874671521108484 0.3838357608245683 0.4671823788561108 0.19639716611223124 0.3162554429974546 0.5457395687498188 0.1891096501907516 0.41766044424205206 -0.02489048301686833 0.13469722520480062 0.6005444589727867 0.14146383962362316 0.40671352079785283 0.3854553242597806 0.39132978176385 0.4099263270931078 0.47347797101053046 -1.0079590727092476 -0.9366759815889084 -0.6759023357570036 -0.10839942945503854 -0.5417611314004575 -0.06538108474741347 2.511695631129353E-6 -0.10835833942369384 0.3364205032146693 0.03855320444078608 0.2676780434306678 0.38397486174685286 0.41645108328704267 0.1359384620764696 0.14064929986095712 0.007276235114660734 0.030186217040469702 0.08580712171457743 0.3436133911825379 0.01124217449485168 0.09304852870957926 -0.2988187090476176 0.030574378794693564 -0.10860045171857739 -0.25190212018606173 0.0786272768821394 0.13758435825426477 -0.27397159532566606 0.1669875573419797 -0.2787146271477611 -0.026631062326705035 -0.027640746499698277 -0.024910896797664207 0.012787660826141724 -0.03963523196546127 -0.04442110907146221 -0.019853745001216085 -0.004444195262296291 -0.008546989323310694 -0.02369399059392603 -0.4004504626462074 
-0.4598254261601722 -0.4038407028396215 -0.34100611257298674 -0.33620594024837464 -0.196434557899202 -0.21483658273215067 -0.12047086405518846 -0.14932025440786928 -0.16989968192280264 0.07103880535373226 -0.08908704271107855 0.002312657822319635 -0.013478800798420254 -0.019277036459422796 0.006102505571534323 0.06804613750982805 0.11415974352857003 0.0914938675601189 0.04530955337247543 -0.03138504029372942 -0.03582501610661723 -0.07083670280430016 -0.026570043669279928 -0.10979235977178047 -0.1867197631018874 -0.12595209066614746 -0.14819423341673837 -0.2582880576694847 -0.2278560357246541 -0.34936027662662017 -0.10231875904423465 -0.058384272679842225 -0.06201194988202362 -0.04959299286229974 -0.1200875775039908 -0.08879280999994638 -0.10829484249707336 -0.0683248443072816 -0.10669156296788125 -0.06801144305579318 -0.09463027500125264 -0.03143853395402994 -0.06462755119619387 -0.07431813453888593 0.004583849272788938 -0.031076353361244993 -0.06862457952146937 0.016685382496969284 -0.026150564672620082 -0.01363753467842239 0.005458369467089566 -0.0046784960663084465 -0.02987379528528493 -0.03360317636796936 -0.028114335437469978 0.029545072177144104 0.014701047050060248 0.025389415038565125 0.013832324001363508 0.03929164785043796 0.011311949925146069 -0.12335412047493625 -0.06371721181877325 -0.04028646371452403 -0.08924780857691278 -0.14116726206733898 -0.06907337664263936 -0.05026823307461608 -0.14438681510764245 -0.15590940536728537 -0.11054792673269953 -0.10125445115936771 -0.08235254740729055 -0.15064762180223576 -0.1992877756613714 -0.11049814583789219 -0.11133651393117715 -0.11229046410063809 -0.11174515131446038 -0.12841509405736767 -0.2004124788485198 -0.13757766206451338 -0.11785390542539849 -0.17434215357637461 -0.14722816111394607 -0.12251218621105538 -0.0606064683938442 -0.15194557144782744 -0.11882485440864295 -0.05389552892291136 -0.17081324809920428 -0.2115363987077615 -0.1487188119535135 -0.23029149967093113 -0.10872299597023345 -0.19601047499427413 -0.23430997717631594 -0.1544194030043867 -0.08469509097990717 -0.05734824342683816 -0.022308019635732968 -0.12330825498603959 0.020406724038911955 -0.10602426732421745 0.07318831777259668 -0.034489856333419194 0.01801689797797082 0.015442115922108975 -0.019785152939945 -0.08345996127148236 0.004350292498059787 -0.06401879589236342 -0.24435555367534184 -0.13925344260418793 -0.16684163166770888 -0.23681713305188012 -0.348484965238357 -0.21390667232666308 -0.20064504081138507 -0.23561513480224883 0.4044373604387372 0.10616618023777068 0.4684477532064368 0.2319696819008623 0.5886799250632132 0.26607740017382403 0.09365789361566575 0.3075450605316302 0.45285247622073455 0.34641389780136217 -0.14058247493215556 0.19749933008323003 0.20690078370745568 0.31763939799655416 0.12410160157924965 -0.12328419853489289 -0.37593597554740715 -0.3326253272110555 -0.556811353680446 -0.16580375071802084 -0.3018377890838738 -0.48080820691799625 -0.2672993587537848 -0.356545480449046 -0.5781858299883107 -0.6235785630696867 -0.8382836071635127 -0.625078631612572 -0.43791121771838415 -0.25897080480068607 -0.7145620594644762 -0.4946354069410642 -0.4663477870557281 -0.16208454711634024 -0.3056349728643395 -0.28376746523913077 -0.1271752353144607 -0.09941698949205587 0.23229376684728753 0.05149646318463061 0.2536845011028665 0.021720014667921627 0.09894743994100216 0.058500983102955595 0.19387760237799948 0.23472198445670103 0.10332225852749972 0.332669478190361 0.4272959374628085 0.18038753004076982 0.4358626079738078 0.10592508684276859 0.22111740208121228 0.5807008077560314 0.1808014686322636 0.2940208142102817 0.2987705130682362 0.2811314424634761 0.285866332779483 0.423780082399871 -0.6406651661241216 -0.7016321598870945 -0.6156133821807527 -0.26663550767635846 -0.6252173101995327 -0.27330998974839626 -0.21462848827161607 -0.3785475282476274 -0.06009793182005352 -0.2439903133571512 -0.06391996462494723 0.02477929449220886 0.15703674998517356 0.03169335094265817 0.0772851854586357 0.008789535103804102 0.11753707098280572 0.2540707043493396 0.5685729295165303 0.2501381730231012 0.369013304080925 0.037328007057560834 0.3515923423650698 0.09460002910126443 0.009791358088274962 0.4418723891575936 0.34834435751377213 0.011575966718977374 0.3553252600730802 -0.028078602098287105 -0.023524896506979243 0.03609993115968192 7.409510653912711E-4 0.018687781026980745 0.04812851694464705 -0.0014642904278016622 0.04039516287741207 0.0278881578098234 -0.040861307289913246 -0.03983623793583505 -0.18917691929383743 
-0.591252070411794 -0.5089917087973561 -0.41706754301187804 -0.4238207649120288 -0.36067729425114725 -0.4451377655574493 -0.34838461517546415 -0.26355557917847217 -0.35054258575416936 -0.11559894058995394 -0.21738026181479833 -0.1697767743526767 -0.1931115494894443 -0.1810472856137622 -0.13970702957450973 -0.1556758848173002 -0.03251470744773022 -0.0943527517607992 -0.15676912539954674 -0.20841585791093953 -0.13231454168506818 -0.2503784664284291 -0.22449315360963912 -0.3564814114350421 -0.3812947072116667 -0.324781184006481 -0.32303028659429744 -0.40821760932080264 -0.5188007363061763 -0.5264680092471135 -0.15849489060554497 -0.1325530244820304 -0.13677681110543186 -0.05803296998972666 -0.035889532417330616 -0.022407798170685563 -0.09090776332810749 0.02094477484800348 -0.03263245917282293 0.011259675101926256 0.012543120027530129 0.0686567053741954 0.07872569101973474 0.05488800806890968 0.025462795662427797 0.10550642912898411 0.009128521306539582 0.12687357897782514 0.08098160937882962 0.09825970636760305 0.10157785039095113 0.13485960871048475 0.07263029119778548 0.11516540580483459 0.16347476878424486 0.1460742283602326 0.21098173741759887 0.15823995267412622 0.15906670304685347 0.18287294250066935 -0.02952405834546276 -0.12258178524815773 -0.05646173122118417 -0.1477466715650825 -0.10780759914887736 -0.11887961845477416 -0.17371895413737462 -0.15608425838138468 -0.17236758380659606 -0.15334184270624376 -0.14783153514690503 -0.12629350194814373 -0.1405661604531396 -0.1235423738440518 -0.18868505444200082 -0.10968135234076361 -0.13465855427927123 -0.12429800423541469 -0.11459976669926669 -0.12389450489198943 -0.14468336404049073 -0.10532718876804442 -0.1526012303165957 -0.1205116545300859 -0.13052188112274937 -0.17037966076677785 -0.09462521549125984 -0.173278670983361 -0.14138389868493081 -0.10734738301066701 -0.16549679976435733 -0.20631862308760568 -0.12893646031292852 -0.24083771638601997 -0.14777527359548567 -0.23606671308425678 -0.2116855777798569 -0.18175862029399906 -0.07279588351942344 -0.12708241614310717 -0.06392872331054514 -0.09840014764871821 -0.09219493215599663 -0.11329194791252797 -0.020020371931169546 -0.10858449771954332 -0.05256488332817051 -0.028272121984962182 -0.09052247647794485 -0.08309853790675836 -0.05659986582749054 -0.01207223093143098 -0.25803761578307016 -0.10209633384157588 -0.11700341025438897 -0.24321960667325748 -0.27164209099612335 -0.2976093050443813 -0.24270909764334828 -0.20479198428237458 0.27263370150994654 -0.0741543063638038 0.2804697053408062 0.1424118314546516 0.49889274313395965 0.10463350103109485 -0.012351224353074298 0.15013070537759177 0.316855832525329 0.14726578812736463 -0.3428616350566645 0.1096693952600045 0.036078395312361525 0.25746568546348325 0.2691457428129293 -0.2713875337502569 -0.43672491349567066 -0.33224540524060175 -0.5011960677887219 -0.11894744936405004 -0.2629927468406561 -0.5193412109100056 -0.16746685803958877 -0.35216772051172335 -0.6094499019200674 -0.7408482220498187 -0.8694034381849554 -0.7187045954407182 -0.5688162938576975 -0.269713969431591 -0.6758621338705024 -0.46532872353799065 -0.17185389040012222 0.13584198390954438 0.005175056285676455 0.09398887732978696 0.27409569272278816 0.3279165149036028 0.6430168040235147 0.3601523431037471 0.5666092373623938 0.40017172042885696 0.4487635782372021 0.3057138654194842 0.35845748205892836 0.42992784806921197 0.26497532619323544 0.24175324751907626 0.5273480754185221 0.24966566326349926 0.4651609746852697 0.0034252933012788008 0.06370207503055036 0.5512036970339883 0.19531619211832943 0.302802304103885 0.36078240456462574 0.33580397067231954 0.37960442697644664 0.4169044822579517 -0.9369430213124124 -0.9062720847526295 -0.6256114004219335 -0.2058494535799645 -0.5664712667888091 -0.10226803694437868 2.3637773926592145E-4 -0.11773840991733635 0.264568499639363 0.01824099569370561 0.21769220530955832 0.34731071095074795 0.35699455958415177 0.16296752314313753 0.16699963059637313 0.053919942152564675 0.046412879828163944 0.11489856544441042 0.34954126251383716 -0.0033793863278866955 0.1513855250545797 -0.22632229376340696 0.06916410400203946 -0.1527741928726844 -0.18474835139628407 0.15224266708089257 0.18965326271913202 -0.24637211963715758 0.1391066350430646 -0.29741495895474057 -0.04309044571390892 -0.04445719089181797 -0.033025323671074434 -0.033883750333143885 -0.03415324835007281 -0.04630912420604325 0.020157227680129744 7.3706922939496E-4 -0.03154290770826353 0.042158042837590476 -0.2960606179034376 
-0.11680386842630437 -0.16711509705405317 -0.10365692059690115 -0.24445654832658426 -0.18465183787341255 -0.18424771127131204 -0.17875866258195944 -0.24185868426155097 -0.21013483597610624 -0.23085987784532566 -0.25855350536842353 -0.21573555669849007 -0.25142242690914024 -0.2589910601602223 -0.20268882156842233 -0.16574752902467974 -0.08946836487605474 -0.18078502362083684 -0.19758189771821114 -0.1815400653199703 -0.20808099278014172 -0.235281686991587 -0.1861322301621026 -0.2561556443769091 -0.2365493343487976 -0.23867569573106012 -0.22419741743545388 -0.26666734144587956 -0.277093004628637 -0.40011699556347813 -0.057179200783735055 0.012544149600767475 0.015612062904255866 0.024392537979937633 -0.0026823401228618588 0.035439281144514646 0.02250376154111649 0.07541414213131437 0.08547686164884902 0.12405915096560155 0.13370434561422237 0.1702842319016023 0.20326878695663575 0.18632084640330962 0.17415842311096477 0.13863987529577534 0.14307076227975338 0.15412507588912 0.16125782931536375 0.17142623809332877 0.14693476638907088 0.14324759257752492 0.190139948718802 0.20557918692275878 0.23870514690976527 0.2509743701391083 0.20839897527696738 0.22533935315268622 0.18834042627140662 0.23953910450374824 -0.13938256290176798 -0.07378359559457752 -0.08658342284243871 -1.975046169890419E-4 -0.10174286005486886 0.006964640818841368 0.0023735395333369224 -0.03411965373471309 -0.032804679717306724 -0.017321448495910132 -0.01645723726817591 -0.02145101511851348 0.02160672314661723 -0.025228318819053318 -0.048056377483875826 -0.014520194580259823 -0.05846692963962162 -1.6409345958830047E-4 0.025710910440252206 -0.016740783245410774 0.009399607651269818 0.02155986468129138 -0.040861568577002086 0.019568413343301352 -0.046535334027976306 -0.016567069374432194 0.012370753110894488 -0.018180576505075968 -0.043933541454576036 -0.01156890543526124 0.017828598725628888 -0.008621005553477768 -0.047249488251063856 -0.10482582520368125 -0.06103281175761263 -0.062439852351295316 -0.059988636273206754 -0.05443301273435871 -0.06095235644095384 -0.06657947479262599 -0.039814266779344354 -0.16991529756269425 -0.029168222885468983 -0.11826204540686978 -0.07847922287859324 -0.1165241526472262 -0.0949265882452645 -0.1033508008172618 -0.03264150480255438 -0.017078207443834467 -0.0033996923081724703 -0.02413196777195965 -0.03197169281810546 -0.023060530097973892 -0.025428449441804907 -0.07048274768941516 0.051172972392726175 -0.04922116902150336 -0.06290788044858331 0.06653946270369512 -0.11501079691069024 -0.12484191582036189 -0.06627488028253968 -0.07619471575218249 -0.06555893929411032 -0.09127504960426712 -0.006863791138532141 -0.05649559773858246 -0.11307198722658209 -0.049627287910140365 -0.22874981603233144 0.015584418924668149 -0.050157899639589915 0.005888020530149718 0.14748442484607988 -0.05279464878083527 -0.10263693770750547 -0.05586806853487948 -0.03612781180746269 0.06605632039106753 -0.005587082652330728 -0.015845706229412598 0.02696638792041611 -0.11182129927213269 -0.17474644632084618 -0.19323535269836337 -0.1791053765745146 -0.23593372821240116 -0.15084759891343225 -0.16796208413425606 -0.06114222236874652 0.10773202486148549 0.2696557809437283 0.4071849458666975 0.39392581753906175 0.5860821783784378 0.6529798670817267 0.49472870549698894 0.7827006630775577 0.5801850552099683 0.575248328775949 0.649237028148893 0.47384959182770875 0.48374363831882433 0.2906452403503275 0.3623089233751815 0.25088828511389294 0.17934618056653653 0.1959624307464067 0.05884443101150488 0.05104120187013322 0.03929817865839017 0.010774984734690128 0.13469375939428024 0.05914678381853087 0.144686941008065 0.2089200890309464 0.23835546925865467 0.2787181257432271 0.23862886436235528 -0.4281775551428874 -0.2728508881728852 0.006810405439351713 0.11407903074612807 0.010841367647804781 0.2806377337774507 0.24940124160401994 0.35929555593097207 0.5519804086759155 0.4389868682717252 0.4510016146110269 0.47016078086085444 0.5044010375476372 0.34379801901309254 0.2446608562707204 0.18470715831267634 -0.05055746615024745 -0.02203462244875468 -0.1790838262098024 -0.23294341930635817 -0.2594679394584882 -0.19670781563992423 -0.17259002358618702 -0.2111284769330645 -0.19143094135832647 -0.17450897938654733 -0.11760396251968189 -0.22316386149142803 -0.17339247246913575 -0.2325234858519492 0.021580596273336583 0.0012282815876492937 -0.0020723746325353566 -0.003023619826134394 0.022601711833055083 -0.027073490268721825 -0.022976986701792393 0.04330200328719147 0.0016939237240942485 -0.04887145149929162 -0.14293545403603888 
-0.6041890635016373 -0.5668542438867948 -0.4523191915894683 -0.5113877544691215 -0.407695530439073 -0.5090756490753426 -0.4024273733815566 -0.3430595750187275 -0.40377070785321023 -0.1931194856559221 -0.33666426686282847 -0.20122721365786636 -0.22194606210855805 -0.2136878165653627 -0.21308428141994326 -0.22164111353752688 -0.1154805414357163 -0.14888500381314398 -0.2520768746400764 -0.2044951384241081 -0.21665924285033866 -0.2622125184978123 -0.2263773988706054 -0.35251420158154917 -0.4974864726218516 -0.4112026019666388 -0.4023212773323928 -0.44949389256485617 -0.5557857272069892 -0.6493178376874766 -0.1499977527350986 -0.11315710685829704 -0.16477276615606684 -0.08133478528116275 -0.03759966454136744 -0.060893910383036716 -0.010624250139910285 -0.03737773933683727 0.014205023310399497 0.008825561071096503 0.03143832441183328 0.07215778273906606 0.08335249542312795 0.11646363055117513 0.16576790205370318 0.1251755684624468 0.10841492070567409 0.16340347963266746 0.12630726761230582 0.10358462092134897 0.12660545337302184 0.09117238279841994 0.0955308596497603 0.1442143141760599 0.18050223556350403 0.17654647551873917 0.2826072955386964 0.22563793455882108 0.2002544244458038 0.14763282665701954 -0.05192799951815249 -0.08127120477220237 -0.079582023542533 -0.09175946544413725 -0.130261612948152 -0.09726946365575527 -0.13325014829269585 -0.13820568352374793 -0.15108331903550998 -0.1060804377825885 -0.1546880450321961 -0.14526437001261042 -0.18990075618536428 -0.1262861830675143 -0.17023272663840708 -0.1758393188098337 -0.16923466449699945 -0.12927738891409002 -0.1118704966492901 -0.1870376684171439 -0.21608650176183555 -0.0905675334443799 -0.12235635467366002 -0.15575052550577148 -0.09724645915748092 -0.10036505109094072 -0.1144721545913562 -0.08634842542729798 -0.17003086721257657 -0.07901160581308002 -0.24260557450676057 -0.1582377530364389 -0.13756761205058568 -0.2987285949053128 -0.16435973619491873 -0.27460844399695195 -0.20228033010481328 -0.1781102462316433 -0.08184407690651382 -0.09392624512332166 -0.115310800085028 -0.1055389330686217 -0.06495382207126248 -0.10849142473332968 0.022805127707718396 -0.06739055825078819 -0.011796295748995527 0.007082250442014659 -0.14079584925216754 -0.09300365598800722 0.058493920277289536 -0.0011151702991000203 -0.21851377653473011 -0.09295683564004484 -0.09344977878956104 -0.3018534472826104 -0.3230300699914289 -0.2415862211221642 -0.25050488866114756 -0.2282844785257845 0.23896180330676417 -0.12976928587358827 0.3864957005895258 0.13336635607210529 0.6349691870819116 0.11960409082699044 0.016404830947255207 0.118109442634604 0.2956229645985088 0.19739163424493622 -0.4008474540908641 0.08757565763762985 0.04602994069116617 0.2365118691892972 0.3177775272124307 -0.33268691291909286 -0.5142775195910648 -0.3420355715923105 -0.5056654521888159 -0.09137018615179629 -0.229262043780137 -0.5247857200876187 -0.08223008286080431 -0.33169640228448627 -0.6640983095051182 -0.7978555341205392 -1.0197246570164378 -0.7686247242139259 -0.5893492451622662 -0.3033664070273125 -0.7591651482267473 -0.3907355398475794 -0.14081664785785455 0.28865149513346083 0.03943637656362564 0.21310461407074296 0.39459708520452175 0.3781510043265555 0.7817753925642562 0.4499133114561371 0.6471875208946909 0.5048776880730014 0.5139814296510581 0.4228997031441961 0.38475782486989085 0.4399009889176481 0.2746453578309253 0.3099694681562895 0.57333684177114 0.25726714688966074 0.4137876696520991 -0.040978705203356496 0.08220899691043297 0.6060815312928827 0.1299516919412643 0.3574677851098711 0.42291736942608904 0.3235705175828713 0.31381839822795043 0.45327188546522995 -0.9844468708379153 -0.9665077491845273 -0.6400080549769555 -0.07314007358055169 -0.5809997705253879 -0.08494656935161952 0.03990988843511989 -0.067107270037014 0.35524340357205053 -0.0034925149581815185 0.2458341461923629 0.45597401876628385 0.4635992304564473 0.1999287331011419 0.17101646661639117 0.010761554694732186 -0.0014018417090002986 0.0465815456112582 0.3124688553080244 -0.016173238649832455 0.03516372228001894 -0.3309662037721964 0.10318677741300855 -0.17396473181347388 -0.2397377384237877 0.05493623843561386 0.18502086726610104 -0.2654516973751167 0.17423129745697077 -0.29481760920832 0.013123276589984235 -0.028544729981675912 -0.03429178247920948 -0.02447348287427884 -0.02250897576777823 0.0222650831899078 -0.04245674827336985 0.0450667130899364 -0.027113430307198497 -0.027082974391127435 -0.3548486016332579 
-0.026315231555456047 -0.09484566896178671 -0.020159280138020593 -0.048036694828213836 -0.0503289137710842 -0.11898782048361313 -0.11654031979156636 -0.037319365807685315 -0.04957079249849023 -0.08799873716442846 -0.07648776193304087 -0.04284560990610801 -0.1157249041317813 -0.1308046428146843 -0.10563050078802941 -0.06921446266834955 -0.06795056581723717 -0.07738498030776272 -0.05651224839759749 -0.018118429120037454 -0.048863208557564486 -0.1089222224792027 -0.03911196023541655 -0.04129442786033793 -0.07532865386136399 -0.0613197931845737 -0.05889940685289935 -0.10581418259579774 -0.07839900925475772 -0.022890587305249472 -0.07320952992905257 -0.06131507698344976 -0.05955106119199427 -0.0181172116016722 -0.07922115779850768 -0.05899650293650861 -0.05377665734449616 -0.04899556641337498 -0.053456829991016815 -0.05546279590801848 -0.061501513870727775 -0.053604920615811846 -0.10353955728192037 -0.12750467776666533 -0.0395610336397339 -0.07568874522190197 -0.026363992622599385 -0.05996575887827658 -0.044086767843232705 -0.06971648476872644 -0.08595959777587543 -0.031718772858873936 -0.03706976421388785 -0.0518554243424037 -0.08119042764391535 -0.055200473862723594 -0.027355996529936952 -0.10176011510019872 -0.08957596398927664 -0.013348164953924024 -0.07965897751557367 -0.059311302060578996 -0.06790470399416512 -0.06941164266108946 -0.1032171180705997 -0.06595002658453797 -0.05906029836140912 -0.004233909945214714 -0.07633424870328451 -0.09728066614354797 -0.05436257636990394 -0.06778757343323469 -0.013702949958228018 -0.04276386972473084 -0.09783882757021453 -0.05318160038938045 -0.06715517343876837 -0.06933210151679366 -9.670722974788135E-4 -0.01824827806654699 -0.049850466949121354 -0.023227544687606093 -0.037718933681501324 -0.05646604552440857 -0.01597689209904183 -0.0638337471333804 0.01100148204616624 -0.06188513522788582 -0.0037024812907759616 -0.07574346211662007 -0.0038243252807711103 -0.020799086057973322 -0.03335449887335007 -0.008459246367410096 0.0016955945470712747 -0.009474103682353022 -0.07984384951722683 -0.09213109266891047 -0.062440441954292505 -0.07104208023034081 0.010235641011842676 -0.0341012899467121 -0.003068032291074595 -0.016639454443831293 -0.0347442048292328 -0.08655550497170111 -0.0017423051902257412 -0.07839597193643277 -0.09745943829692748 -0.07821156941192836 -0.006750339917986332 -0.08911579866688346 -0.05951724872318662 -0.0031134123771236056 -0.0030569754236624406 -0.009567526960822652 -0.062202135718744375 -0.002834530358195467 -0.02046483824323751 0.02134154327749203 -0.08949945847625677 -0.15540440065415229 -0.0628236452809038 -0.08068625918261513 -0.02132686041454056 -0.09300252483556876 -0.09960967724851617 -0.12142277590488497 -0.08271700958335007 -0.0830506701471236 -0.11196277155882929 -0.04042585984876523 -0.09057842120129908 -0.10655354822890471 -0.06898762726012753 -0.088192386585187 -0.07667335505557436 -0.102609102556976 -4.857528027198931E-4 -0.013363389760343932 -0.05854677132101244 0.03041943318806459 -0.03683814621462566 -0.026578079140968297 -0.09792002283507863 -0.042831420556366066 -0.05010252543909567 -0.04070487881012973 -0.06258568315545303 -0.08076091506770806 -0.08761084104324295 -0.03670518279817049 -0.08505746247230368 -0.024852575534509855 -0.10264358401932692 -0.12701782427027253 -0.11642996543302306 -0.07020792582839847 -0.11203830840585104 -0.1475632837648302 -0.10107403439199748 -0.07929554821099456 -0.1525255700893805 -0.15689528537655917 -0.13171644202151084 -0.13282343648562253 -0.10851330698410379 -0.12319995724835445 -0.10040394380670163 -0.06577429311176744 -0.09717160168423178 -0.139929092759611 -0.09726818877605235 -0.0631986739579025 -0.07594783606002592 -0.09728051431481922 -0.09190081357831206 -0.14168151096241316 -0.15874353754782347 -0.04283707526464933 1.3193168250049005E-4 -0.034917673427536336 -0.0953022906727047 -0.005291250256833872 -0.06828128880160383 -0.02949024524933446 -0.05692014853645112 -0.033968398499844406 -0.10311138662250757 -0.03533351932616815 -0.03489506296967098 -0.07331850592800081 -0.09802417946828282 -0.10293689995795702 -0.11358725163728936 -0.08761519690038372 -0.03273032072216882 -0.13034220898555987 -0.0639167813584841 -0.09811285822381396 -0.11019598115924448 -0.11073857732250611 -0.08271290353834893 -0.15643155898051908 -0.1068758932296072 -0.1505692888576803 -0.03566607084781041 -0.10713532416477524 -0.07835412375204862 -0.08430010152296823 -0.035925509176175506 -0.029134331032034045 0.011540788432606197 0.04152436946091879 0.04366137592874948 -0.0362685371714807 0.03193996569420025 0.027804325272076203 -0.016145680575066514 -0.04785198927579248 -0.17641940104487727 
-0.08095375498246772 -0.05104685325921084 -0.009870288778799675 -0.10794189695043316 -0.037214832234170964 -0.03725795346645675 -0.08617617641789344 -0.08720304994517387 -0.026112361635463814 -0.07233071017116878 -0.05164688131557873 -0.021130761017478204 -0.08080156548316078 -0.08990607623967545 -0.10560414421474983 -0.07063031146548089 -0.0954128309296692 -0.12093174785639921 -0.08138888061218597 -0.08714318640638642 -0.10612697482087179 -0.03600444498968063 -0.0768346165579502 -0.05754188943869054 -0.07882817240939942 -0.1011558597731869 -0.009454050917970316 -0.04692408043644333 -0.09104421047986319 -0.07113670436778313 -0.017346168305122756 -0.0927409376853663 -0.005664367680752112 -0.017579715899413578 -0.11503107433976088 -0.10465034956490102 -0.06136409980950936 -0.06377992312890751 -0.10146856137778146 -0.08107992244663415 -0.06026701873153857 -0.010355890741862868 -0.020475740239301304 -0.0972180687632516 -0.04008460199155965 -0.041200336647674494 -0.034171483660672804 -0.11610151865794409 -0.07331052644914172 -0.04994142168108761 -0.06970622781825214 -0.054919924413613916 -0.09807252659784658 -0.0863221878542421 -0.06772687368783449 -0.007586470403310893 -0.08525068655665184 -0.09247035532788082 -0.09684809228320258 -0.03960752082201819 -0.03015394702348803 -0.02548007367346052 -0.025110329450381684 -0.040280910375360225 -0.07609350421058975 -0.09951455228052011 -0.023089726269192708 -0.03999554815251085 -0.012808252484673424 -0.07674040771617921 -0.05400215000959328 -0.07917890590448094 0.009041677729898239 -0.04502799612298069 -0.07363939357907148 -0.08208147302196267 -0.048201345813438594 -0.03821536482223685 -0.03176189736063748 -0.06413496344779493 -0.08735028782991398 -0.004575438817787393 -0.01741809496643996 -0.08500583232339805 -0.1023617313677182 -0.04516871617218411 0.00623961931160417 -0.06323636662131284 -0.05519181731589372 -0.049658115573874874 -0.07533182985720105 -0.004233591020063779 -0.04542183735156465 -0.03893222610454373 -0.07330655630025584 -0.07550652180972578 -0.027787081505260748 -0.04706022323639665 -0.022645924325837907 -0.062148793463064886 -0.015215291057457028 -0.047563613397507525 -0.07755685868006572 -0.04075172691151706 -0.04336311420697005 0.005861585395041444 -0.02545840415889408 -0.014268311924041334 -0.03492783643697913 -0.04445961827117432 0.005551126713725236 -0.005005872818094375 -0.0063528353248640075 -0.007006058985118584 0.01993266300620851 -0.04026158994860387 -0.029605722193402725 -0.0017947030999508845 -0.031225676993609564 -0.02259936247529839 -0.13388368627052027 -0.1353777187203566 -0.12985123690509984 -0.15206276562628165 -0.0758874746601976 -0.1345996701449351 -0.0945746517279893 -0.1367566416750463 -0.018420210514441704 -0.07991211108292373 -0.08730517104244379 -0.058316098268020915 -0.01553102155674016 -0.08342804496274545 -0.1000504070543132 -0.06879901261122806 -0.0010760287754734237 -0.11471143570870247 -0.06295482846299003 -0.031004021820363062 -0.05761687001956481 0.031425472707969575 -0.06484715578905553 -0.04725382488375957 -0.09262157532903911 -0.09918421201168387 -0.049604033621638684 -0.013148265883080497 -0.0672239994763854 -0.03330536065168592 -0.012693383038108921 -0.045771763588157835 -0.00655946903061094 -0.014512258799787361 -0.042565535273850645 -0.07930354628245694 -0.10536161955240439 -0.038742292592966805 -0.12673387907170236 -0.126078972420545 -0.0377245218807186 -0.10056862286785273 -0.14218159671504813 -0.10946585076770134 -0.13705530141609845 -0.05798480355506548 -0.07107135630761607 -0.10409762880755064 -0.07737711730626315 -0.10526534111410914 -0.09689307820843124 -0.08702401979720169 -0.14413392627209826 -0.11494687104350418 -0.12973071708701292 -0.09633293630310973 -0.06348143202097634 -0.1281912301649071 -0.15564108799532372 -0.12440520585389087 -0.01674036195308495 -0.0659026535527597 -0.09506971349932866 -0.06518100006762 -0.019332260074082112 -0.037230713601549136 -0.07614268712779054 -0.06238672993274778 -0.08088424782263276 -0.10942921150212935 -0.09176417068364978 -0.0769975635671253 -0.03671265037096847 -0.08675356880281171 -0.05838904252362713 -0.10626828593280783 -0.033769760377592856 -0.10640565967374505 -0.08399753905522804 -0.11565376275068974 -0.10397929574988798 -0.13764342174186134 -0.08178955709843906 -0.1417290393088001 -0.07226994077507905 -0.07270994222858666 -0.11028052087364093 -0.10296834113397134 -0.04261385380621065 -0.046603037249953794 -0.04598223001937677 0.017717888182006092 0.031332471027581466 -0.0411572668417041 0.02137936717551945 -0.034372497078307564 -0.02663390846226198 -0.04538800911262826 -0.04600490371757332 0.005612289676905147 -0.1685645705194712 
-0.08931702943299141 -0.024881539917362153 -0.04927047934852827 -0.09479789477286002 -0.060836336648420704 -0.023573026442846912 -0.07543555794341854 -0.027112411681279563 -0.10191764281907754 -0.12160818696878972 -0.005164827166774708 -0.07591015487134316 -0.05112151726190717 -0.10694590967751082 -0.09674885175636858 -0.03142003311785428 -0.05428901557675906 -0.10986939275105269 -0.010035216427887735 -0.0019635819247087326 -0.059257496208458674 -0.06928643931952017 -0.02403155538234597 -0.10893925092091505 -0.03527658664198432 -0.0414506088978235 -0.025959486090164702 -0.043662807346361375 -0.03727125221274598 -0.05955465818305163 -0.07184785631586153 -0.059441346736584834 -0.053495883003061115 -0.021510098222777822 -0.07470263580358831 -0.03181319644089915 -0.10816257843461674 -0.09703466395372386 -0.051067392793531056 -0.046499461037901445 -0.07190117578937913 -0.07386090332609697 -0.027921597319692515 -0.08187925040362759 -0.052042836315418985 -0.06565977361669312 -0.021961459435310447 -0.08368505369157216 -0.03265721235749375 -0.055399192663792486 -0.03729959034011589 -0.029108256056109696 -0.0774803325138966 -0.06258016026611737 -0.026112479336743512 -0.02920840850404494 -0.08564835332010594 -0.10435610147857406 -0.06667373564513081 -0.02378193707072748 -0.007216338269221088 -0.04946055728295487 -0.08359239025345111 -0.018175854416041776 -0.11130536936249708 -0.05650787634704686 -0.0370211429792103 -0.030944823891215136 6.243693014092355E-4 -0.08877298758453996 -0.05292773045330744 -0.09552702435510536 -0.012700433551705193 0.015063801207619588 -0.033752083588781366 -0.0054915395409156015 -0.06882648552434735 -0.06946991858264202 0.00470589510057487 -0.011641736785286716 -0.03291983008039833 -0.028378204905433226 -0.07894010322295988 -0.06595526813942679 -0.04719747507073272 -0.08647314640538868 0.011785619901174315 -0.10404426424242862 -0.03173183247406385 -0.04786099575910473 -0.0417204006367347 -7.693785993448431E-4 -0.030197190556749673 -0.07970045111719985 0.007367196748940722 -0.005858883576539202 -0.0946887379990272 -0.034920594299715585 -0.06539483835207602 -0.008618035315615924 -0.03932372395449235 -0.0678447206973519 -0.05733129249715876 -0.05762448885073968 -0.06609152262079221 -0.002697813588971902 0.0012660519255091826 -0.015370079518959506 -0.041298860409140034 -0.001109106440002298 -0.04625613862278506 0.006518813096575351 -0.018634554594403028 -0.004465829318349116 5.393167496281517E-4 -0.062155475704207264 -0.013320750114583911 0.004237899618864553 -0.035748694443401965 0.02517198955106077 -0.0692712024212435 -0.055134935979651425 -0.09538545148660575 -0.14570921074622534 -0.006013298310850617 -0.08285179990931138 -0.07579055112639332 -0.15034452015504585 -0.03667744146707351 -0.04465688434227323 -0.05660452742081807 -0.11692739321994512 -0.040950061296269005 -0.04481508357659839 -0.06790134029163013 -0.1135571240903705 -0.05415845268233106 -0.07694764667306885 -0.06987097100426122 0.018892029254789645 0.01188783175000615 -0.0010572074644206995 0.008505215667926332 -4.89657435864731E-4 -0.04481593151645939 -0.10636969581716242 -0.050431897157854594 0.0012705010792507581 -0.019752101477133147 -0.05282315943513113 -0.018199228225009165 -0.08823655185015017 -0.05654534474344129 -0.04760611401168129 -0.11131097838668258 -0.08139027972983452 -0.035172511682390384 -0.06926463280169558 -0.10651530643826701 -0.06486820936235577 -0.05914625917766335 -0.038265436491541335 -0.13114947033890237 -0.06443965357646182 -0.08773260126140964 -0.05654606632655465 -0.10760935024723689 -0.061512075089058635 -0.05735154895349222 -0.12070324210627359 -0.13570836181309964 -0.12611438535527986 -0.1368130015042066 -0.061397783386014315 -0.11530733863883244 -0.10271894889433912 -0.12658849965021335 -0.06824253015967938 -0.0812262936511228 -0.060874920922851225 -0.015792217936907813 -0.008376829654954426 -0.0811313989350676 -0.03897780835522433 -0.05219832433459196 -0.061259047707109264 0.010856610880524059 -0.05327924717207088 -0.07493464447513268 -0.10376333417151966 -0.06546514665254737 -0.09130209063430733 -0.03942455297507123 -0.03411149199174998 -0.014672281936947012 -0.08954077936114571 -0.05072164023550098 -0.11836064600608202 -0.10449373615019762 -0.13442864061998716 -0.07668626952003889 -0.12644760084479975 -0.05142183934486282 -0.08080900835008208 -0.12257994485628482 -0.10219490377611243 -0.06542889020865622 -0.054926005670845726 -0.0733353745721668 -0.09308247394438632 -0.04646898043995415 -0.015603714878908949 -0.04658765954343857 0.021254098764574014 -0.03667935406824029 0.04494332801741796 -0.04535456533203332 -0.015571495193092434 -0.03101803133535678 -0.008690753484744828 -0.1151068792392463 
-0.048669038864880644 -0.010979242106985011 0.021809807221769586 0.0018048096010275794 0.04541196864366598 0.04346320425144889 0.018513910771235053 -0.048572558048813046 0.03573921122008287 -7.4615789798127E-4 0.0014726820359231563 -0.031733441373658626 0.04351013551671423 0.04507710366700555 -0.0031086608424976017 0.04169399736868115 0.04982579740025683 0.027368229227516108 -0.025040154710343057 -0.02055803609827496 -0.036384313292437985 -0.011248060130044002 -0.042312849408552226 0.004620625777788068 0.042294757297855756 0.03774495634627807 0.044837801667999 -0.004475491046031621 0.04455019599729712 0.0442810519150442 -0.04305143392026787 0.04369459693989426 0.03459697166353355 -5.349879694421467E-4 0.04840664719578336 0.026113226976596172 -0.04969249254607303 -6.544250974195309E-5 6.999735555006881E-4 0.035943986873147704 -0.006187670286301861 0.017306886689710633 -0.03379610022887227 -0.007110963458521447 0.0024848589076683306 -0.008590817196407885 -0.0037523325683418984 -0.0409786359391554 0.010664973368970477 0.04234009827109303 -0.046292235527219665 0.01885968761135172 0.018042382243452205 0.03088185105354706 -0.01999567780549888 0.04348888580929139 0.039312198810197055 0.009380257999643139 -0.040869486893755774 0.04768891578086562 0.021531588170581387 -0.0040673393408015126 -0.002776091253854296 -0.033679557642899684 -0.019452313471846762 -0.026428638092522907 0.015192563948800843 0.02162546563118191 0.025933476284562496 -0.0368971256326158 0.03403760760463869 0.026636456908084163 0.015059646478985056 0.0433608854988899 0.017767904650496293 -0.028452401737925917 0.0012468877668048606 -0.004146453312447363 0.02718138818211361 -0.030313012614653037 0.018384529404959316 0.03213333675471595 0.0292914643677797 -0.0023613209334981014 -0.025032277089243795 0.02169039363548575 0.0018058507181902496 -0.04990125968608955 0.014196919989833835 -0.024232127611414567 -0.030180900306459126 0.04420952116131496 0.03359966242685171 -0.041779435726064275 0.01275898146252611 -0.04959838046732663 0.04757622789068901 -0.011614378616839073 -0.016369230087143916 -0.002816939577510347 0.019336994598278423 -0.027093072282856102 -0.010267572630526068 -0.0041495448392278814 -0.01510917564697102 -0.04644768002616766 -0.00573244204744936 -0.04224297959778065 0.04106020288615103 -0.013714535693234886 0.01166191482172161 0.031557500501411095 -0.02805978413592234 -0.026798095656871204 -0.014106841997571284 -0.029239817435661078 0.04378490637034621 -0.0465885501229698 -0.039227543356170506 -0.047048622674040134 0.006995922667645516 0.021546671898848083 -0.02612955331179816 0.011217873176745809 0.005704805389417167 -0.016699986378968735 0.03165895031585785 0.005578028164121451 0.010381643909737594 -0.023760373148218196 -0.047556230050162455 -0.042357679704740275 -0.043030756607712585 -0.01887331081443744 -0.004207199527871586 -0.0047406402317410334 -0.002766629467243853 0.02405467535527528 0.03241756176030138 0.005563472061015706 0.03933601128811302 0.022953631148543253 0.046845205103157816 -0.02537483307493469 -0.014919962626776917 -0.03664975505569305 0.006721935034052518 -1.8406950910941912E-4 -0.04915998202700056 -0.0022529349025512957 -0.022782305412618678 -0.0029660336065749473 -0.007114623674066268 -0.04941801912966059 0.006755855644859788 -0.01090238939049104 0.04461846598594943 -0.023548369203210587 -0.038829404991798766 -0.04610160801852811 0.013191559794292873 -0.036869851541134924 0.037398521275846745 0.03131575302529697 -0.023966865633955916 -0.007112754477348837 0.04494000115768796 0.036430732112916996 -0.03599471786635851 -0.02429265285275898 0.0035796014698743495 0.0032359124651166527 0.017230412878640057 0.04623408521251641 -0.03076609539456382 -0.01217572643836119 -0.04793309518482998 -0.027387819024044937 -0.033701090805836185 -0.007050445904760405 -0.01672029914154405 -0.04012866192447132 -0.025501904238483242 0.036886055801409266 0.004143272039033397 0.0430944904458597 -0.009013816615932247 -0.02132413103267813 0.03903080664169224 -0.04366466647317346 -0.03565752735396034 0.02913666910236662 0.04798483221001831 0.03209779423980617 -0.0239084151826109 0.02241346351393865 -0.019169047360580938 0.03316269140535405 0.027518364118397965 -0.0036072865129030632 0.04958770702210685 0.04364454497615722 -0.025202491956824336 0.03195750537507624 0.012242048101408233 0.049384096573948356 0.0438375159249271 0.030847552422992343 0.038401295136513115 0.01912983035627566 0.04774237504632467 -0.030202020264918097 -0.04210119592473643 -0.042565661354294904 0.02442333614217869 -0.045334010460380915 -0.022877921723431106 0.037789155910963414 0.009647024547796357 0.012414683900010815 -0.01535164068445174 

#hidden -> output weights  hiddenToOuputW[7][8]:
1.004595822219874 1.0044364597606577 1.0045777400048808 1.0007341657276494 1.0045987419805842 -0.2544606494094743 -0.18500540955157055 -0.2707666145790277 -3.3523827122639918 
-0.8035799294821719 -0.8607478511233603 -0.7358812060588387 -2.1215174140533155 -0.9674971210569068 0.9999999026614043 0.9999998987584034 0.9999997539361754 -3.207803004416112 
-1.168271525048853 3.3385833174784176 0.9251043290664115 -5.659397694177759 -2.0340526422727065 -0.198907590663393 -0.13380331288290365 -0.24088155487694088 -0.11889798780230265 
-0.7291437303418219 -0.8357138801529205 -0.7046721107624259 -2.127794832295577 -0.9113857865892128 -0.3380499549760105 -0.25626188412010614 -0.34211493783406544 -3.206781334691617 
-0.777921592870391 -0.8834089204117332 -0.6712349263348734 -2.1265225110272037 -0.9927462395795501 -0.28777440692839934 -0.20508521599832144 -0.40101715428052176 -3.19368167131553 
-0.7686213799890972 -0.8660881324842563 -0.6835736096572792 -2.107594333675723 -1.0102168015035864 -0.26232572543950644 -0.21818941346133863 -0.4180891645557883 -3.209112196442049 
-0.7777852770614967 -0.8459098596645945 -0.6769112881665111 -2.1355942433078527 -0.9700776028406694 -0.26843317489489266 -0.17034335373192158 -0.37369320014494933 -3.1987543930455367 
